<?xml version="1.0"?>
<opencv_storage>
<opencv_ml_svm>
  <format>3</format>
  <svmType>C_SVC</svmType>
  <kernel>
    <type>LINEAR</type></kernel>
  <C>1.0000000000000001e-01</C>
  <term_criteria><iterations>10000</iterations></term_criteria>
  <var_count>2500</var_count>
  <class_count>2</class_count>
  <class_labels type_id="opencv-matrix">
    <rows>2</rows>
    <cols>1</cols>
    <dt>i</dt>
    <data>
      0 1</data></class_labels>
  <sv_total>1</sv_total>
  <support_vectors>
    <_>
      2.13482726e-05 5.68812220e-06 -3.98602388e-05 -5.20714966e-05
      -3.50244554e-05 -1.18023163e-05 1.02535569e-05 2.17066754e-05
      1.87599308e-05 7.36174798e-06 5.01790328e-06 1.04105038e-05
      -5.72521958e-06 -9.46659202e-06 3.65097662e-06 1.13966180e-05
      7.64147717e-06 7.80398750e-06 2.04018374e-06 -1.10864148e-05
      -7.97149005e-06 8.71051088e-06 3.37460260e-05 4.07334701e-05
      2.73041478e-05 2.80091281e-05 3.03262095e-05 1.40990405e-05
      2.95683694e-05 3.07154733e-05 2.78733532e-05 2.55767209e-05
      2.17842808e-05 1.68510378e-05 1.53218243e-05 1.49358129e-05
      1.74455981e-05 6.97257747e-06 2.51510369e-06 -2.33414835e-06
      -1.14244276e-05 -2.27974506e-05 -1.98549660e-05 -1.05156478e-05
      -2.01625630e-06 -2.03058403e-06 -1.34807206e-05 -2.48320594e-05
      -2.62247177e-05 -2.85266906e-05 1.94240583e-05 1.06601838e-05
      -5.86266469e-06 -8.15597832e-06 -2.41206794e-06 2.74550052e-06
      7.32988565e-06 7.92687115e-06 2.51420215e-06 2.73092678e-06
      9.15737564e-06 1.48334566e-05 4.72737293e-06 -3.06808261e-07
      -4.72002239e-06 -1.23937725e-05 -1.94491622e-05 -1.05651216e-05
      -8.51288178e-07 -1.43329789e-05 -1.49030466e-05 2.44948592e-06
      2.88911542e-05 2.89782274e-05 1.45742524e-05 1.24659555e-05
      9.64369337e-06 3.64245489e-06 3.13952114e-05 3.85009080e-05
      3.46962515e-05 2.89481668e-05 2.33342871e-05 1.70718504e-05
      1.39512485e-05 1.10518449e-05 1.70205549e-05 7.19655964e-06
      2.36841106e-06 1.33481740e-06 -6.34456001e-06 -1.88758113e-05
      -2.62797003e-05 -2.48680026e-05 -9.76392312e-06 -6.44415968e-06
      -1.08227505e-05 -1.63633067e-05 -2.44492003e-05 -3.80719612e-05
      1.25483475e-05 6.54374071e-06 3.12613042e-06 4.96642360e-06
      8.40668872e-06 1.36788831e-05 1.91427589e-05 1.98023026e-05
      1.27697122e-05 1.23126274e-05 1.79474755e-05 2.06120058e-05
      1.41800820e-05 9.64860101e-06 7.35594222e-06 3.41045279e-06
      2.77905428e-06 6.76443142e-06 7.22904315e-06 -6.40245435e-06
      -6.90351271e-06 6.12272606e-06 2.81749053e-05 2.91689012e-05
      1.47664596e-05 1.06420766e-05 1.09068123e-05 6.83927510e-06
      3.26633854e-05 4.10113207e-05 4.05303872e-05 3.76024836e-05
      2.82691508e-05 1.57125978e-05 1.39534459e-05 7.65539608e-06
      6.98887743e-06 -3.74937531e-06 -6.43754811e-06 -2.77170489e-06
      -6.31748799e-06 -1.21689518e-05 -1.36063327e-05 -1.51493114e-05
      -5.79214657e-06 -1.61077583e-06 1.13650958e-06 1.35038670e-06
      -1.40061347e-05 -3.13422315e-05 1.23712061e-05 1.03511220e-05
      1.23508098e-05 1.19348888e-05 1.23090913e-05 2.11299230e-05
      3.86200554e-05 4.73875916e-05 3.16463957e-05 2.11560855e-05
      1.75162295e-05 1.43731932e-05 4.80756353e-06 2.14407919e-06
      4.92054323e-06 6.50250377e-06 5.47912214e-06 5.24693814e-06
      7.19056834e-06 7.36788388e-06 1.48181280e-05 2.66470543e-05
      4.39629075e-05 4.76236601e-05 4.05941282e-05 3.54613076e-05
      3.65248707e-05 3.31769988e-05 4.16486400e-05 4.03652957e-05
      4.07320367e-05 3.93865666e-05 2.86618870e-05 1.14691020e-05
      1.28688434e-05 1.36438784e-05 1.60874624e-05 7.94435800e-06
      1.59131059e-06 -4.80669769e-06 -1.36744056e-05 -1.51041104e-05
      -5.03720503e-06 -3.77827178e-06 -3.30776174e-06 -8.11103746e-06
      -7.56795134e-06 -1.62066760e-06 -1.57107934e-05 -3.15401267e-05
      1.16001484e-05 2.25005551e-05 3.67370958e-05 5.30065736e-05
      5.76635393e-05 5.68277537e-05 4.95062050e-05 3.84748491e-05
      2.10524340e-05 1.18998678e-05 7.34906189e-06 5.07993718e-07
      -1.15803914e-06 -6.25889834e-06 -8.30158660e-06 -1.13665683e-05
      -1.35515365e-05 -1.41226101e-05 -1.20581199e-05 -1.01496998e-05
      2.63203196e-06 2.14415613e-05 3.40085644e-05 3.84443083e-05
      4.19129028e-05 4.46057238e-05 3.92343500e-05 2.71054487e-05
      2.25910571e-05 1.66180143e-05 1.53564597e-05 1.71588126e-05
      8.45348950e-06 -6.86544035e-06 -9.40059999e-06 -9.50349022e-06
      -2.26521133e-05 -2.93253597e-05 -3.03866091e-05 -2.99230214e-05
      -2.88717001e-05 -1.63711557e-05 -4.78764468e-06 2.46459962e-07
      2.11106385e-06 -3.50785558e-06 -6.40997496e-06 -1.30593230e-06
      -1.94597415e-05 -3.65151900e-05 6.90533852e-05 6.05649657e-05
      4.72577958e-05 3.44698565e-05 2.37755430e-05 1.85836561e-05
      1.49348934e-05 1.40252632e-05 1.04164483e-05 1.53668152e-05
      2.05795186e-05 1.52483399e-05 1.37986262e-05 3.93853634e-06
      -2.49993059e-06 -6.02196087e-06 -9.65871368e-06 -6.07818174e-06
      -2.91833771e-07 1.61825199e-06 1.32718696e-05 3.17994782e-05
      3.55103184e-05 4.13116686e-05 4.85648670e-05 4.80639646e-05
      4.04879647e-05 2.77960535e-05 2.11799761e-05 1.89107486e-05
      1.50748465e-05 1.59781248e-05 1.62208053e-05 1.23031114e-05
      1.51101158e-05 1.73945100e-05 3.95757843e-06 -5.81099539e-06
      -1.21943758e-05 -1.28435622e-05 -1.61200514e-05 -1.02378081e-05
      4.67715290e-06 1.40503498e-05 9.87094336e-06 2.58565024e-06
      -3.98954444e-06 -5.68185851e-06 -1.50922569e-05 -2.48929191e-05
      4.70699779e-05 3.75764321e-05 3.22601918e-05 2.60566794e-05
      2.30959758e-05 2.24005780e-05 1.93569122e-05 1.71097163e-05
      1.74122506e-05 2.36855103e-05 3.30880976e-05 3.22215201e-05
      3.04903151e-05 1.99999122e-05 1.48160852e-05 1.30292565e-05
      1.09619468e-05 1.22361462e-05 1.89245256e-05 2.37451914e-05
      3.12531884e-05 4.30498003e-05 3.99813434e-05 3.53326359e-05
      3.62558640e-05 2.91861234e-05 2.50099220e-05 2.09985665e-05
      1.79807830e-05 1.64923349e-05 1.32469740e-05 9.92563582e-06
      1.39513941e-05 2.17482302e-05 2.38834491e-05 2.12047289e-05
      1.70429321e-05 7.68001973e-06 4.68778535e-06 5.78093386e-06
      2.46731383e-06 -4.93242896e-06 9.74852810e-07 6.69898554e-06
      1.35981702e-06 -2.04912453e-06 -4.29462352e-06 -7.47067634e-06
      -1.44907863e-05 -1.73695607e-05 2.53852304e-05 2.26852189e-05
      2.65089620e-05 3.05263566e-05 3.41024097e-05 3.73568510e-05
      3.60529702e-05 3.54012773e-05 3.32119780e-05 3.39119506e-05
      3.81815044e-05 4.09507047e-05 4.08790365e-05 3.16231635e-05
      3.04093865e-05 3.51380877e-05 3.53848191e-05 3.35340519e-05
      3.86024403e-05 4.28884523e-05 4.40069962e-05 4.53731009e-05
      4.13675516e-05 3.58349171e-05 3.27005182e-05 2.41785583e-05
      2.17952911e-05 2.37410932e-05 2.27257842e-05 2.09105783e-05
      1.56254373e-05 7.36393304e-06 4.66895199e-06 6.99292923e-06
      7.73619013e-06 2.00121826e-06 -1.54624092e-06 -1.04832789e-05
      -1.20216555e-05 -2.54145050e-07 5.70635711e-06 -1.37291511e-06
      -9.36311551e-07 1.81259418e-06 -1.49315747e-06 -1.44039302e-06
      -1.31607840e-06 -5.67126608e-06 -1.61802182e-05 -2.16930621e-05
      2.67328578e-05 2.66388834e-05 2.77864510e-05 3.45884509e-05
      3.66863715e-05 3.78889417e-05 3.77739161e-05 3.86898864e-05
      3.78304758e-05 3.46176203e-05 3.61740858e-05 4.06906365e-05
      4.20257311e-05 3.88210356e-05 3.96157411e-05 4.55527406e-05
      4.45090991e-05 3.93940245e-05 3.16457299e-05 2.69894717e-05
      2.00036702e-05 1.71326410e-05 1.63456680e-05 1.90404717e-05
      2.82853216e-05 3.28258684e-05 3.44070395e-05 3.86263673e-05
      3.85487474e-05 3.71036476e-05 2.08633755e-05 1.86139425e-06
      -3.72526961e-06 -6.48163564e-07 1.05258209e-06 -4.19073285e-06
      -9.78387288e-06 -1.81463838e-05 -2.26355805e-05 -8.88147224e-06
      5.84076270e-06 1.16116225e-05 1.43176212e-05 1.56837232e-05
      1.18215348e-05 1.12117305e-05 1.15997636e-05 5.43202441e-06
      -7.96009226e-06 -1.21580742e-05 3.52090829e-05 3.95324532e-05
      3.35650439e-05 3.14808021e-05 3.21883454e-05 3.06634720e-05
      2.87513649e-05 3.01963573e-05 3.24426655e-05 3.28642709e-05
      3.48260292e-05 3.87286818e-05 4.25667931e-05 3.62068931e-05
      2.80503828e-05 2.44747935e-05 1.80659918e-05 9.09585560e-06
      -2.81813550e-06 -1.36960052e-05 -2.44524326e-05 -2.27873079e-05
      -1.44981004e-05 -3.52614666e-06 1.63856766e-05 3.26970076e-05
      4.19150965e-05 4.30963482e-05 3.34923752e-05 2.24731466e-05
      3.80323081e-06 -1.11570589e-05 -1.00780644e-05 -2.10282474e-06
      -7.73672491e-06 -1.68029601e-05 -2.36121159e-05 -3.29426002e-05
      -3.61465281e-05 -2.03123182e-05 -4.69048928e-06 1.01870255e-05
      1.40087295e-05 1.65297988e-05 1.51776194e-05 1.09819612e-05
      9.32698367e-06 7.38390781e-06 4.02789556e-06 2.61480886e-06
      3.94099916e-05 4.89596387e-05 3.74215197e-05 3.23418317e-05
      2.65333329e-05 2.29375619e-05 2.06459099e-05 2.18207570e-05
      2.45043284e-05 3.40381557e-05 4.01069410e-05 4.28540225e-05
      4.60848605e-05 2.97415172e-05 1.14849836e-05 -3.19221499e-06
      -1.81018768e-05 -2.96923063e-05 -3.72227987e-05 -4.55124937e-05
      -4.33716268e-05 -2.28875124e-05 -6.59568377e-06 9.24824633e-07
      1.61059052e-05 3.40116567e-05 3.28592141e-05 2.68931744e-05
      1.00873831e-05 -8.14045143e-06 -1.67174094e-05 -2.30228234e-05
      -2.05016204e-05 -1.87076348e-05 -1.99122678e-05 -2.58360669e-05
      -2.97393362e-05 -3.80919009e-05 -4.26599909e-05 -2.75492548e-05
      -7.50720983e-06 5.85922317e-06 4.53363145e-06 1.05661156e-05
      1.66454465e-05 1.56195019e-05 1.13028655e-05 8.36309209e-06
      6.67067161e-06 6.43126759e-06 3.71720926e-05 4.34986105e-05
      3.42597341e-05 3.69557420e-05 3.43560678e-05 2.79474589e-05
      2.63963084e-05 2.50763824e-05 2.36598335e-05 2.62003505e-05
      2.91626038e-05 2.53976432e-05 2.15081618e-05 -5.29875433e-06
      -2.37469885e-05 -3.28405367e-05 -4.56222879e-05 -6.05266723e-05
      -6.67235436e-05 -7.01585595e-05 -6.20595674e-05 -4.77419526e-05
      -3.89032066e-05 -3.66185523e-05 -1.65265137e-05 6.10811821e-06
      -8.18167427e-06 -1.73469816e-05 -1.73768058e-05 -1.93440937e-05
      -3.01597047e-05 -4.27475534e-05 -3.29146314e-05 -2.15297550e-05
      -1.82218264e-05 -2.81347930e-05 -3.31931624e-05 -4.11340770e-05
      -4.22641351e-05 -2.41548114e-05 -6.21799700e-06 6.34311527e-06
      6.78279719e-07 2.45003025e-06 5.64366246e-06 7.91072034e-06
      4.72024021e-06 6.81480117e-07 2.04823277e-06 7.90264494e-07
      3.25608453e-05 3.16969599e-05 2.88960291e-05 3.92473157e-05
      3.97305266e-05 3.44166292e-05 2.45536448e-05 1.29882173e-05
      3.93292157e-06 -3.46857291e-07 1.49980087e-06 1.43237878e-06
      6.12646375e-07 -2.93629091e-05 -5.51944540e-05 -6.51812952e-05
      -7.15154310e-05 -7.23808698e-05 -7.04165577e-05 -6.98904914e-05
      -6.64366016e-05 -6.82044556e-05 -7.58160677e-05 -8.55085309e-05
      -6.34761454e-05 -2.16770186e-05 -2.68229960e-05 -3.33871940e-05
      -4.05471947e-05 -4.76498462e-05 -5.24813076e-05 -5.44916984e-05
      -3.51189410e-05 -1.84741148e-05 -1.71471656e-05 -2.83131685e-05
      -3.20627914e-05 -4.22287776e-05 -4.34264111e-05 -2.53526687e-05
      -5.87221211e-06 4.31362650e-06 2.09894165e-06 5.17643741e-07
      -8.88239455e-08 -8.61876526e-09 -3.18551611e-06 -4.38928919e-06
      -2.05002812e-06 -2.96386645e-07 3.73828698e-05 3.24377979e-05
      2.91016640e-05 3.22909327e-05 3.24620414e-05 3.27732887e-05
      2.05932774e-05 3.97825170e-06 -7.51866492e-06 -2.03530362e-05
      -2.44848889e-05 -2.40487334e-05 -2.26358516e-05 -5.15020220e-05
      -7.26384169e-05 -7.88062607e-05 -8.04198135e-05 -7.68919053e-05
      -7.14639100e-05 -6.82283207e-05 -6.56370030e-05 -7.58365641e-05
      -8.81966480e-05 -9.83420978e-05 -7.73803768e-05 -4.18930722e-05
      -4.95657550e-05 -5.33466009e-05 -5.57942913e-05 -6.07777874e-05
      -6.65143307e-05 -6.78628203e-05 -4.57841525e-05 -2.33747578e-05
      -1.96285782e-05 -2.82588135e-05 -2.72497546e-05 -3.51630661e-05
      -3.58173529e-05 -1.89955008e-05 -4.93757625e-06 3.34932156e-06
      1.72735758e-06 1.90861624e-06 1.09060954e-06 8.37824302e-07
      -7.90345993e-08 1.46558863e-08 2.71515160e-06 3.44685782e-06
      4.10568682e-05 3.75753807e-05 3.47475216e-05 3.56706369e-05
      3.96061769e-05 4.50413281e-05 3.51114068e-05 1.32825098e-05
      -1.05638801e-05 -2.52491518e-05 -3.08462186e-05 -3.42494786e-05
      -3.69962909e-05 -6.74559342e-05 -8.13998195e-05 -7.97903631e-05
      -8.37174157e-05 -8.57966952e-05 -8.21688300e-05 -7.68443933e-05
      -6.85581035e-05 -7.68037135e-05 -9.33028132e-05 -1.14494644e-04
      -1.01289363e-04 -6.44538086e-05 -6.68466600e-05 -6.94575865e-05
      -7.52339038e-05 -8.04148149e-05 -8.77212151e-05 -8.90320080e-05
      -6.75936753e-05 -3.62658720e-05 -2.47578264e-05 -2.87560215e-05
      -2.67045107e-05 -3.19981882e-05 -2.92441364e-05 -8.36566414e-06
      4.60115871e-06 1.06769567e-05 8.55394592e-06 1.04827341e-05
      8.97529753e-06 9.83275550e-06 9.60610396e-06 1.35624987e-05
      1.61033877e-05 1.80497809e-05 5.05219286e-05 4.86731369e-05
      4.47796265e-05 4.15654795e-05 4.21892255e-05 4.64201730e-05
      3.77849829e-05 8.27589065e-06 -2.85554888e-05 -3.40905863e-05
      -3.31848460e-05 -3.15604339e-05 -3.65519845e-05 -7.10876993e-05
      -8.43601374e-05 -8.50574288e-05 -8.56989645e-05 -8.41582441e-05
      -7.56440859e-05 -6.71811140e-05 -5.66741437e-05 -6.57096170e-05
      -8.55435719e-05 -1.07175852e-04 -9.83632635e-05 -6.78290453e-05
      -7.61933115e-05 -8.54632817e-05 -8.99455845e-05 -8.91355230e-05
      -8.80983571e-05 -8.79958243e-05 -6.83301332e-05 -3.59055193e-05
      -2.22925864e-05 -2.64229275e-05 -2.31478462e-05 -2.81547545e-05
      -2.29791003e-05 8.00209591e-07 1.50415808e-05 1.72953823e-05
      1.51570111e-05 1.89868206e-05 2.31371614e-05 2.43690938e-05
      2.37817931e-05 2.45641986e-05 2.42973529e-05 2.75434595e-05
      5.66215786e-05 5.50769910e-05 4.84090451e-05 3.88093249e-05
      3.43833453e-05 3.30053845e-05 2.25544136e-05 -7.98748169e-06
      -4.04984276e-05 -4.12557893e-05 -3.71514288e-05 -3.53001487e-05
      -4.01675643e-05 -6.76575728e-05 -7.89563273e-05 -8.19613415e-05
      -8.44497845e-05 -8.30476492e-05 -7.11047905e-05 -5.93139521e-05
      -4.32467496e-05 -5.09550300e-05 -7.91632629e-05 -1.10234592e-04
      -1.07581953e-04 -8.09036937e-05 -8.80515363e-05 -8.98858198e-05
      -8.04070369e-05 -6.31538132e-05 -7.01955869e-05 -8.03762305e-05
      -6.46713161e-05 -3.52344941e-05 -2.15640794e-05 -2.50134162e-05
      -2.30291535e-05 -2.62190733e-05 -1.73936915e-05 6.91153400e-06
      1.95758439e-05 1.76577942e-05 1.34928523e-05 1.65461042e-05
      2.52477257e-05 2.88032516e-05 2.92662353e-05 2.41112430e-05
      2.02955907e-05 2.00437462e-05 3.52758434e-05 3.62685532e-05
      3.60994127e-05 3.22285741e-05 3.08884228e-05 2.99806979e-05
      2.03759464e-05 -9.63054845e-06 -4.58752511e-05 -4.40696786e-05
      -3.68817746e-05 -3.23858512e-05 -3.32881573e-05 -5.35132749e-05
      -5.77462670e-05 -5.93336154e-05 -6.47104171e-05 -7.03902915e-05
      -6.27229747e-05 -5.30858779e-05 -3.57742028e-05 -4.31237240e-05
      -8.05119053e-05 -1.18800686e-04 -1.15311748e-04 -8.17538021e-05
      -7.43587007e-05 -6.63024912e-05 -6.00760213e-05 -4.51096566e-05
      -6.01368411e-05 -7.59147151e-05 -6.27687987e-05 -3.56772689e-05
      -2.38641278e-05 -3.02943281e-05 -2.72271263e-05 -2.42736296e-05
      -1.16624260e-05 1.46116327e-05 2.75266266e-05 2.74509348e-05
      1.77263155e-05 1.14469576e-05 1.27925496e-05 1.70464973e-05
      2.42614442e-05 2.38385364e-05 2.36636897e-05 2.41258258e-05
      2.35117459e-05 2.75807142e-05 3.06449983e-05 2.92463737e-05
      2.86735740e-05 2.76871142e-05 2.64198115e-05 2.57305101e-06
      -3.29974355e-05 -3.14749777e-05 -2.20361526e-05 -1.41063929e-05
      -1.49125044e-05 -3.08349372e-05 -3.86253669e-05 -4.27219202e-05
      -5.00593560e-05 -5.31459154e-05 -4.22122575e-05 -3.82617691e-05
      -2.88558786e-05 -3.64569678e-05 -7.29514650e-05 -1.02907070e-04
      -8.68377101e-05 -5.58674001e-05 -5.64340990e-05 -4.96933753e-05
      -4.33327696e-05 -2.81947978e-05 -5.07215846e-05 -7.12188485e-05
      -6.10274910e-05 -3.70069101e-05 -2.55448849e-05 -3.30291005e-05
      -3.10627765e-05 -2.52253558e-05 -9.60984562e-06 2.22587896e-05
      4.12706031e-05 4.76629284e-05 3.89829802e-05 2.88516239e-05
      1.59343890e-05 1.25495017e-05 1.34685652e-05 1.57494287e-05
      3.01578384e-05 3.94730669e-05 1.82554195e-05 2.14481497e-05
      2.70379060e-05 3.01060154e-05 3.11567564e-05 2.77738072e-05
      2.93123958e-05 1.32839532e-05 -2.01056064e-05 -1.96891706e-05
      -1.21423764e-05 -8.19457182e-06 -8.48035961e-06 -1.34051543e-05
      -1.01811429e-05 -1.77991496e-05 -3.84696541e-05 -4.44104662e-05
      -3.42675085e-05 -3.70619782e-05 -3.53499127e-05 -4.46387276e-05
      -7.27818478e-05 -8.83031753e-05 -6.48474888e-05 -3.37035963e-05
      -3.30390576e-05 -2.64135997e-05 -2.17988218e-05 -1.61445660e-05
      -4.75757442e-05 -7.18950541e-05 -6.17958503e-05 -4.01291836e-05
      -2.94072743e-05 -3.36982994e-05 -3.16132573e-05 -2.49315108e-05
      -5.78208164e-06 2.70620367e-05 4.68854232e-05 5.42965245e-05
      5.46471128e-05 4.91489773e-05 3.43327192e-05 2.35078114e-05
      1.42152039e-05 8.98361213e-06 2.01415369e-05 2.98521009e-05
      1.73188473e-05 1.83875054e-05 2.38041448e-05 2.69771172e-05
      2.91724027e-05 2.64186438e-05 2.93738613e-05 2.05892338e-05
      9.29947475e-07 2.39919427e-06 1.14440818e-05 1.70711501e-05
      1.70648636e-05 7.15711303e-06 4.84041129e-06 -1.17512454e-05
      -4.02707010e-05 -4.75126799e-05 -4.04185412e-05 -4.96322100e-05
      -4.98507106e-05 -4.82587857e-05 -6.40673461e-05 -7.10132081e-05
      -4.40293625e-05 -1.92135503e-05 -1.60978107e-05 -1.08436880e-05
      -9.39115671e-06 -1.26588075e-05 -4.93493571e-05 -7.27734514e-05
      -5.91214630e-05 -4.06026738e-05 -3.16518672e-05 -3.36901321e-05
      -3.05678877e-05 -1.86995385e-05 -1.40632051e-06 3.22797860e-05
      5.45200892e-05 5.31755541e-05 5.11599974e-05 5.14799540e-05
      4.65749617e-05 4.09388995e-05 2.63727579e-05 1.02561853e-05
      9.87192197e-06 1.30657709e-05 2.28633726e-05 2.15448017e-05
      2.38470584e-05 2.24674368e-05 2.33491137e-05 2.58978362e-05
      3.00923984e-05 2.81408102e-05 1.94695531e-05 2.16139742e-05
      3.06932852e-05 3.58223369e-05 3.10475880e-05 1.88439572e-05
      9.76248793e-06 -1.46642478e-05 -4.68262988e-05 -5.85395683e-05
      -5.83272376e-05 -5.86860479e-05 -5.01638460e-05 -4.31467852e-05
      -5.27055490e-05 -5.37679152e-05 -2.56897310e-05 -7.20283015e-06
      -1.12870721e-05 -1.05856307e-05 -1.00720636e-05 -1.33594585e-05
      -5.11079088e-05 -7.26424842e-05 -5.59787732e-05 -3.77346187e-05
      -2.89164127e-05 -2.95928585e-05 -2.50513549e-05 -1.11812788e-05
      7.76966317e-06 4.09929125e-05 6.43723033e-05 5.06626966e-05
      4.18182062e-05 4.33973619e-05 4.17591291e-05 3.50417831e-05
      2.59107310e-05 1.74873476e-05 1.42957879e-05 1.10995379e-05
      3.01079999e-05 2.82662077e-05 2.45781794e-05 2.23581101e-05
      2.18209389e-05 2.34612016e-05 2.82385263e-05 3.05181347e-05
      2.81015455e-05 2.83733552e-05 3.45854569e-05 3.63151848e-05
      3.23605382e-05 1.93946162e-05 1.09193024e-05 -1.89644543e-05
      -5.37169799e-05 -5.48148928e-05 -5.02893636e-05 -4.74690823e-05
      -4.10354332e-05 -3.81128229e-05 -5.17082881e-05 -5.12650367e-05
      -2.27102664e-05 -6.87794227e-06 -1.03332322e-05 -1.05931267e-05
      -9.64379433e-06 -1.34863221e-05 -5.19939531e-05 -7.26021608e-05
      -5.31842707e-05 -3.75256059e-05 -2.69919219e-05 -2.59277585e-05
      -2.31399226e-05 -1.05236622e-05 8.83562825e-06 3.95461466e-05
      6.25999674e-05 5.10920436e-05 4.14223614e-05 3.95747666e-05
      3.30892763e-05 2.28434455e-05 2.08145448e-05 2.02343817e-05
      2.09801347e-05 1.81095911e-05 2.81743141e-05 2.70996115e-05
      2.37974691e-05 2.00507366e-05 1.87602727e-05 1.93432770e-05
      2.21464943e-05 2.35869429e-05 2.48951965e-05 2.74228951e-05
      3.21141706e-05 3.47664718e-05 3.30967741e-05 2.04876123e-05
      1.13227215e-05 -1.72230375e-05 -4.78286092e-05 -4.75486704e-05
      -4.38124298e-05 -3.91079921e-05 -3.07985028e-05 -2.74566701e-05
      -4.54545188e-05 -4.82534160e-05 -1.99864171e-05 -7.46591923e-06
      -8.44998158e-06 -6.61414924e-06 -5.21427773e-06 -1.43832885e-05
      -5.45557123e-05 -7.28376835e-05 -4.85308483e-05 -3.32111231e-05
      -2.49882305e-05 -2.57760348e-05 -2.47802400e-05 -1.48214713e-05
      5.19439072e-06 3.52038915e-05 5.44612485e-05 4.84752381e-05
      4.19467797e-05 3.86115680e-05 3.13424389e-05 2.09464324e-05
      2.26910452e-05 2.67379510e-05 2.92423883e-05 2.57040028e-05
      2.18158075e-05 2.05412780e-05 2.21236278e-05 2.11905553e-05
      1.90903829e-05 1.81969517e-05 1.80898678e-05 1.96155906e-05
      1.91166473e-05 1.81713294e-05 2.26993416e-05 2.81438206e-05
      2.85029055e-05 2.32891070e-05 1.80515472e-05 -6.72641454e-06
      -3.76950848e-05 -3.62846731e-05 -3.22244341e-05 -2.85195674e-05
      -2.17008110e-05 -2.31715021e-05 -4.83484691e-05 -5.01794202e-05
      -1.71543088e-05 -4.01571970e-06 -4.27644090e-06 -5.01094155e-06
      -2.47094044e-06 -1.58467537e-05 -5.40231158e-05 -6.74190233e-05
      -4.07287807e-05 -2.97687802e-05 -2.45131559e-05 -2.67950563e-05
      -2.57245356e-05 -2.05288616e-05 1.06725884e-06 3.34489523e-05
      4.92281652e-05 4.34609938e-05 3.99378405e-05 3.58882462e-05
      3.18453822e-05 2.53293401e-05 2.43578615e-05 2.73638998e-05
      2.93474877e-05 2.58539330e-05 1.53811998e-05 1.36342223e-05
      1.57727682e-05 1.87702299e-05 2.18400055e-05 2.28093813e-05
      2.24643009e-05 2.06099048e-05 1.45649419e-05 1.13024880e-05
      1.59367391e-05 2.05989945e-05 2.18277200e-05 2.26296233e-05
      2.01027979e-05 -4.18479658e-06 -3.43177162e-05 -3.38590980e-05
      -2.98052109e-05 -2.74254380e-05 -2.02409174e-05 -2.41878588e-05
      -4.84930279e-05 -4.85505989e-05 -1.16255642e-05 2.32273169e-06
      -1.36564722e-06 -4.06904473e-06 -2.97845554e-06 -1.75927180e-05
      -5.18691159e-05 -5.87271315e-05 -3.06201182e-05 -2.37452459e-05
      -2.32372659e-05 -2.63830443e-05 -2.54984880e-05 -2.10884482e-05
      3.15791181e-06 3.39032522e-05 4.60541960e-05 3.80690617e-05
      3.23510176e-05 2.98507766e-05 3.92809488e-05 4.23573838e-05
      3.14412064e-05 2.45190822e-05 2.27208347e-05 2.36412507e-05
      1.91871804e-05 1.61913922e-05 1.56516053e-05 1.50815167e-05
      1.62978085e-05 1.78617302e-05 1.83717038e-05 1.81121522e-05
      1.45047052e-05 1.15042203e-05 1.49664065e-05 1.83644734e-05
      2.09199170e-05 2.34351064e-05 1.98483231e-05 -7.62554282e-06
      -3.65954111e-05 -3.47197674e-05 -3.15075340e-05 -2.93881403e-05
      -2.05278920e-05 -2.10166545e-05 -4.10400826e-05 -3.73830444e-05
      -1.47719550e-06 5.80236656e-06 -2.44416299e-07 -3.47950731e-06
      -1.92373182e-06 -1.82797394e-05 -5.32779814e-05 -5.57699714e-05
      -2.74301183e-05 -2.09273876e-05 -2.34336130e-05 -2.55839896e-05
      -2.70678338e-05 -2.12157611e-05 5.55665520e-06 3.82682701e-05
      4.46184858e-05 3.36276935e-05 2.83416466e-05 2.72906400e-05
      3.45054032e-05 3.91487738e-05 3.45518201e-05 2.89364107e-05
      2.92685254e-05 2.86553877e-05 3.99206074e-05 3.45886001e-05
      2.91008091e-05 2.00482045e-05 1.48162799e-05 1.39403328e-05
      1.46368329e-05 1.48040599e-05 1.30347962e-05 1.09762395e-05
      1.32901596e-05 1.54289592e-05 1.60485561e-05 1.94396234e-05
      1.42699164e-05 -1.03364409e-05 -3.69183253e-05 -3.34492870e-05
      -3.04807563e-05 -2.50934027e-05 -1.18724874e-05 -1.09197363e-05
      -3.24986213e-05 -2.91883134e-05 1.84053511e-06 5.30221951e-06
      6.10582845e-07 -3.16998694e-06 -2.99616204e-07 -1.82239728e-05
      -5.19996138e-05 -5.35229337e-05 -2.36815558e-05 -1.95837474e-05
      -2.22333092e-05 -2.53810667e-05 -2.79164396e-05 -2.11626011e-05
      6.37948006e-06 3.75264499e-05 4.38781644e-05 3.46067573e-05
      3.28755923e-05 3.22836859e-05 3.63983418e-05 4.06759136e-05
      3.58253819e-05 3.10541509e-05 3.24256871e-05 3.10369505e-05
      4.96457687e-05 4.51072447e-05 3.89103443e-05 2.68243930e-05
      1.76857920e-05 1.33278209e-05 1.38299174e-05 1.32236091e-05
      1.14516788e-05 1.14211416e-05 1.58490184e-05 1.64335142e-05
      1.64169141e-05 1.86391644e-05 1.23670507e-05 -1.01368278e-05
      -3.09046882e-05 -2.20021284e-05 -1.67500239e-05 -1.27129997e-05
      -3.78931850e-06 -9.57618158e-06 -3.35873119e-05 -2.91739907e-05
      2.01826424e-06 6.03617491e-06 -3.54997667e-08 -4.14109081e-06
      -1.75587002e-06 -1.96478359e-05 -5.22189694e-05 -5.19563982e-05
      -2.23332827e-05 -1.81332816e-05 -1.82778658e-05 -2.22731524e-05
      -2.52016926e-05 -2.07100857e-05 8.25046482e-06 3.83194601e-05
      4.14290735e-05 3.36487719e-05 3.63660874e-05 3.95226525e-05
      4.21034056e-05 4.36219707e-05 4.13299422e-05 3.87381006e-05
      3.66004024e-05 3.08811359e-05 5.04086092e-05 3.93461378e-05
      2.78571370e-05 1.60299878e-05 1.15071116e-05 9.85485531e-06
      1.06488587e-05 9.90265926e-06 7.96223685e-06 9.00982559e-06
      1.53171623e-05 1.91541403e-05 1.90342435e-05 2.04515090e-05
      1.02510494e-05 -9.90571061e-06 -2.62891426e-05 -1.80700972e-05
      -1.19366277e-05 -8.80451535e-06 -4.67926793e-06 -1.45473759e-05
      -3.73923103e-05 -3.04098412e-05 1.18829155e-06 7.40510859e-06
      8.24552558e-07 -1.96667031e-07 1.18027877e-07 -2.19505182e-05
      -5.35645631e-05 -5.03250776e-05 -2.18131372e-05 -1.70402163e-05
      -1.80944880e-05 -2.09274513e-05 -2.31228878e-05 -1.82464591e-05
      1.40947923e-05 4.27993509e-05 4.22526537e-05 3.56072778e-05
      3.80527817e-05 3.82865437e-05 3.38654609e-05 2.42248025e-05
      2.32605562e-05 2.64007449e-05 3.01800465e-05 2.96366597e-05
      6.28586786e-05 5.69522417e-05 5.15168722e-05 3.64399421e-05
      2.16795834e-05 1.18826656e-05 6.99989141e-06 7.06565606e-06
      7.71339546e-06 8.42040663e-06 1.21618832e-05 1.55945381e-05
      1.96171968e-05 2.00915365e-05 4.06646404e-06 -1.37524212e-05
      -2.46463642e-05 -1.89440543e-05 -1.22559704e-05 -8.81643882e-06
      -5.73001762e-06 -1.78921691e-05 -3.85944586e-05 -3.02981080e-05
      -1.57936441e-07 6.55402755e-06 2.35696689e-07 7.03908370e-07
      1.09857240e-06 -2.46149302e-05 -5.50071964e-05 -4.87250800e-05
      -2.11767583e-05 -1.68551996e-05 -1.87135847e-05 -2.18072328e-05
      -2.34858489e-05 -1.77743605e-05 1.25786009e-05 4.65736484e-05
      4.88145124e-05 4.48222454e-05 4.40024924e-05 3.91896210e-05
      2.96273374e-05 1.99311307e-05 1.86739617e-05 1.86788038e-05
      2.11456663e-05 2.55856376e-05 7.39492461e-05 7.11828325e-05
      6.78039360e-05 5.87970280e-05 4.67574755e-05 3.44137225e-05
      2.26549364e-05 1.35097671e-05 8.84553538e-06 7.89874775e-06
      8.91595573e-06 1.13215001e-05 1.51217600e-05 1.73604294e-05
      -1.17596585e-06 -1.78883602e-05 -2.38643388e-05 -1.85031386e-05
      -1.38376272e-05 -9.99081112e-06 -6.70246209e-06 -2.25303302e-05
      -4.02959522e-05 -2.88977189e-05 -1.48090953e-06 5.17424769e-06
      -2.17188835e-06 -3.70536281e-06 -1.23994960e-06 -2.66735078e-05
      -5.54952712e-05 -4.79507216e-05 -2.10967992e-05 -1.71089541e-05
      -1.84744349e-05 -2.43466966e-05 -2.83304907e-05 -2.15920136e-05
      1.13139713e-05 4.35010006e-05 4.56601629e-05 4.07146545e-05
      3.97342701e-05 3.65830783e-05 3.12363372e-05 2.64319897e-05
      2.48843626e-05 2.18376153e-05 2.50023695e-05 3.31421215e-05
      8.24054223e-05 7.69694379e-05 7.23060148e-05 6.77906937e-05
      6.46906628e-05 5.93851873e-05 4.93681946e-05 3.16671612e-05
      1.47384098e-05 5.76565708e-06 4.14299575e-06 7.03829028e-06
      1.07576980e-05 1.34153042e-05 -6.22273274e-06 -2.10738090e-05
      -2.35129992e-05 -1.83333086e-05 -1.35603641e-05 -9.43009036e-06
      -7.06148603e-06 -2.51881465e-05 -3.84260056e-05 -2.38482407e-05
      1.04614855e-06 7.49030141e-06 -2.73234835e-09 -3.77201013e-06
      -2.54324777e-06 -2.98478735e-05 -5.61983652e-05 -4.55892186e-05
      -1.92527132e-05 -1.68238967e-05 -2.05949855e-05 -2.82777692e-05
      -3.35517580e-05 -2.58864784e-05 7.81911604e-06 3.82227408e-05
      3.99191449e-05 3.39106700e-05 3.33710050e-05 3.27558009e-05
      3.32819727e-05 3.49612637e-05 3.68620167e-05 3.42283529e-05
      3.21370972e-05 3.26925983e-05 8.65099501e-05 7.84333897e-05
      7.13149784e-05 6.64539693e-05 6.37783451e-05 6.44407701e-05
      6.37632183e-05 5.42903872e-05 3.74631636e-05 2.13878084e-05
      9.68035329e-06 6.66598316e-06 1.12720018e-05 1.39532058e-05
      -7.13288091e-06 -2.34350828e-05 -2.44807925e-05 -1.76088888e-05
      -1.23406708e-05 -8.24597555e-06 -7.69407416e-06 -2.95114478e-05
      -3.90962632e-05 -1.99025963e-05 3.29362410e-06 9.19044578e-06
      3.82818598e-07 -4.14501028e-06 -4.64223103e-06 -3.32633608e-05
      -5.53856080e-05 -4.31770495e-05 -1.88615086e-05 -1.95098764e-05
      -2.83896952e-05 -3.59388505e-05 -3.85493258e-05 -2.83914578e-05
      6.17116802e-06 3.38773789e-05 3.36278899e-05 3.04222667e-05
      3.15744037e-05 3.06212969e-05 2.86857958e-05 2.91243778e-05
      2.94424462e-05 2.70486835e-05 2.22206636e-05 2.19199283e-05
      9.12945252e-05 8.60432046e-05 7.74533692e-05 7.09040105e-05
      6.58451536e-05 6.40972285e-05 6.52539748e-05 6.31394360e-05
      5.90611598e-05 4.70039195e-05 3.37870333e-05 2.28554945e-05
      1.37832621e-05 1.50081141e-05 -5.87644172e-06 -2.28208864e-05
      -2.21881164e-05 -1.57756003e-05 -1.19135020e-05 -8.56406223e-06
      -8.92311346e-06 -3.33295175e-05 -4.03423110e-05 -1.85358167e-05
      5.04619493e-06 8.81791675e-06 3.33300591e-06 -1.09097891e-06
      -3.02805233e-06 -3.59217702e-05 -5.73130310e-05 -4.42365090e-05
      -2.58933014e-05 -2.84622347e-05 -3.50074442e-05 -4.16990370e-05
      -4.10903049e-05 -3.01672044e-05 4.24131667e-06 2.55462346e-05
      2.62391004e-05 2.57256906e-05 2.77665076e-05 2.55766481e-05
      2.44396160e-05 2.27107466e-05 1.83818338e-05 1.60500058e-05
      1.42278486e-05 1.49993493e-05 8.74252873e-05 8.74674879e-05
      8.50753568e-05 8.07221222e-05 7.43303390e-05 6.75060874e-05
      6.61619270e-05 6.59855068e-05 6.49266440e-05 6.01846696e-05
      5.36999069e-05 4.32280722e-05 3.43381689e-05 2.71915706e-05
      -1.38543578e-06 -2.26947159e-05 -2.18589066e-05 -1.69341183e-05
      -1.22844949e-05 -1.12153521e-05 -1.29102418e-05 -3.64881453e-05
      -3.93315240e-05 -1.52983048e-05 5.36978951e-06 7.02779971e-06
      4.71776366e-06 1.47007404e-06 -5.27412931e-06 -4.20136312e-05
      -6.41776205e-05 -4.87510588e-05 -2.87367984e-05 -3.20648433e-05
      -3.69893496e-05 -4.41897464e-05 -4.38213028e-05 -3.36576486e-05
      7.40269797e-07 1.73448461e-05 1.61287226e-05 1.79834733e-05
      2.11295192e-05 2.05419128e-05 1.90905612e-05 1.76697777e-05
      1.68808710e-05 2.16341887e-05 2.26851898e-05 2.27517667e-05
      8.08506666e-05 8.18174231e-05 8.33731901e-05 8.26208707e-05
      7.82375209e-05 7.20438693e-05 6.59151410e-05 5.96700156e-05
      5.77307219e-05 5.57418534e-05 5.44588584e-05 5.20763533e-05
      4.78785769e-05 3.96972864e-05 5.75564400e-06 -2.11940551e-05
      -2.62685517e-05 -2.27800701e-05 -1.75586447e-05 -1.67699236e-05
      -1.83398824e-05 -4.15500872e-05 -4.17039773e-05 -1.63734603e-05
      3.79052523e-07 1.06727327e-06 6.18294962e-07 -2.49023606e-06
      -1.08180193e-05 -4.93086809e-05 -7.01649333e-05 -5.29662320e-05
      -3.31963638e-05 -3.51981980e-05 -4.11977853e-05 -4.94950364e-05
      -4.94378110e-05 -3.87441032e-05 -2.47482785e-06 1.61289609e-05
      1.31739462e-05 1.34510747e-05 1.27213480e-05 1.21320036e-05
      1.54337795e-05 1.76207614e-05 1.79874005e-05 2.20671282e-05
      2.21155897e-05 1.87199639e-05 7.57111193e-05 7.63701682e-05
      7.77930982e-05 7.86589953e-05 7.96947061e-05 7.65212390e-05
      6.96804418e-05 6.04806082e-05 5.55352708e-05 5.01558898e-05
      4.82730757e-05 4.79879855e-05 4.91781720e-05 4.58843970e-05
      1.37151246e-05 -1.69440336e-05 -2.36373107e-05 -2.50234007e-05
      -2.11560546e-05 -2.07811445e-05 -2.24767009e-05 -4.64422519e-05
      -4.48533428e-05 -1.88371141e-05 -3.70219800e-06 -1.69583575e-06
      -1.77999107e-06 -6.11363703e-06 -1.42997042e-05 -5.23755589e-05
      -7.07125728e-05 -5.35241634e-05 -3.32160162e-05 -3.74022347e-05
      -4.37857707e-05 -5.08506491e-05 -5.13525192e-05 -3.95677198e-05
      -1.06997595e-06 1.79581548e-05 1.65843794e-05 1.55746457e-05
      1.00632542e-05 6.60214027e-06 1.32348423e-05 2.08909150e-05
      2.48944834e-05 2.54911884e-05 1.60075688e-05 5.85569069e-06
      7.04283884e-05 7.04110571e-05 7.10343156e-05 7.12735855e-05
      7.23281410e-05 7.27826555e-05 7.18811498e-05 6.78797078e-05
      6.05206114e-05 5.13194282e-05 4.57198257e-05 4.32592533e-05
      4.33042078e-05 4.30805776e-05 1.45922395e-05 -1.10814990e-05
      -1.35911487e-05 -1.78837818e-05 -1.76358717e-05 -2.27086275e-05
      -2.81735211e-05 -5.21446127e-05 -4.63373108e-05 -2.04819553e-05
      -5.23685230e-06 -3.00247007e-06 -4.17689444e-06 -7.54305256e-06
      -1.80888783e-05 -5.33313141e-05 -7.06206774e-05 -5.56255618e-05
      -3.62739520e-05 -3.96771247e-05 -4.57761125e-05 -5.14037602e-05
      -5.37582891e-05 -4.26874940e-05 -2.85299689e-06 1.44345058e-05
      9.75351031e-06 1.10462861e-05 6.39024211e-06 5.07174673e-06
      7.09476626e-06 9.57649263e-06 1.27583053e-05 1.59669326e-05
      8.55305370e-06 -8.66715936e-07 6.57908022e-05 6.60556689e-05
      6.65165644e-05 6.65984116e-05 6.75790579e-05 6.86536732e-05
      7.01319077e-05 6.93575203e-05 6.58241115e-05 5.85535199e-05
      4.99307171e-05 4.22595367e-05 4.04813727e-05 3.94171802e-05
      8.56897077e-06 -1.26205387e-05 -1.08995246e-05 -1.06540047e-05
      -1.00757434e-05 -1.71965676e-05 -3.14234676e-05 -5.45485600e-05
      -4.80127164e-05 -2.40326281e-05 -7.38354538e-06 -6.54854557e-06
      -8.13664428e-06 -9.25322456e-06 -1.98462239e-05 -5.53385908e-05
      -7.12198671e-05 -5.85626258e-05 -4.06619001e-05 -4.33865571e-05
      -4.87249890e-05 -5.41292939e-05 -5.46231859e-05 -4.24641730e-05
      -4.41440847e-07 1.59064875e-05 1.02324457e-05 1.50510750e-05
      1.54431600e-05 1.56812694e-05 1.44208234e-05 8.52677113e-06
      3.99467262e-06 3.40554038e-06 -2.03259287e-06 -6.64791651e-06
      5.64685215e-05 6.17179321e-05 6.46964618e-05 6.51169539e-05
      6.49444337e-05 6.42296509e-05 6.54529431e-05 6.33396485e-05
      6.28937923e-05 6.25473986e-05 5.68171927e-05 4.90224120e-05
      4.36769878e-05 3.64708503e-05 3.34258061e-06 -1.75362948e-05
      -1.29501796e-05 -9.45504416e-06 -4.43900171e-06 -1.04109904e-05
      -2.82590863e-05 -5.02123075e-05 -4.46689155e-05 -2.38818830e-05
      -9.93156027e-06 -8.54390964e-06 -8.01449551e-06 -8.46484454e-06
      -2.07728717e-05 -5.40398178e-05 -6.89018270e-05 -5.86529022e-05
      -4.06843101e-05 -4.28429339e-05 -4.86370554e-05 -5.31411351e-05
      -5.29838908e-05 -3.69072368e-05 6.30610793e-06 2.12206323e-05
      1.66551108e-05 2.32507482e-05 2.43190880e-05 2.32592538e-05
      1.69612231e-05 9.98504129e-06 5.29722593e-06 3.30666603e-06
      -1.46456466e-06 -7.16003706e-06 3.88919689e-05 5.10081045e-05
      5.88596777e-05 6.09472736e-05 6.10202733e-05 6.03607114e-05
      6.10613642e-05 6.09718663e-05 6.15855970e-05 6.21431318e-05
      6.06008616e-05 5.67672978e-05 5.06360266e-05 3.96592513e-05
      2.98564396e-06 -2.11722945e-05 -1.84434703e-05 -1.29341288e-05
      -7.16933437e-06 -9.34100171e-06 -2.53796716e-05 -4.34312315e-05
      -3.63848085e-05 -1.69864797e-05 -6.13143766e-06 -7.25045720e-06
      -7.02265515e-06 -6.35175593e-06 -2.03319032e-05 -4.76205132e-05
      -6.13206794e-05 -5.59501532e-05 -3.96304167e-05 -4.35683141e-05
      -4.83353397e-05 -5.40582805e-05 -5.43864553e-05 -3.43482025e-05
      3.96806809e-06 1.82628355e-05 1.69591422e-05 2.16131994e-05
      2.18717614e-05 1.74379584e-05 9.65116578e-06 3.67755251e-06
      3.03107572e-06 4.86027920e-06 4.40970780e-06 5.01034356e-06
      1.93329615e-05 3.05516951e-05 4.34736903e-05 5.17921653e-05
      5.52121564e-05 5.76176462e-05 5.79843945e-05 5.84244626e-05
      5.89984957e-05 5.85390735e-05 5.92632459e-05 5.94769917e-05
      5.73085017e-05 5.07232508e-05 2.12325740e-05 -2.25020790e-06
      -4.77264712e-06 -7.34491232e-06 -5.13544865e-06 -1.15115054e-05
      -3.17881386e-05 -4.27564300e-05 -3.17566664e-05 -1.50881897e-05
      -3.44114414e-06 -3.58287139e-06 -2.25592225e-06 -2.03816910e-07
      -1.17723039e-05 -2.32927596e-05 -2.66323095e-05 -2.12711820e-05
      -8.06435492e-06 -1.33777166e-05 -1.76201847e-05 -2.34319159e-05
      -2.42037549e-05 -1.51360982e-05 7.11635130e-06 1.28136435e-05
      9.56107579e-06 1.24796898e-05 1.38199239e-05 8.39691347e-06
      1.37657673e-06 1.59303011e-06 4.32681782e-06 9.44328440e-06
      1.47571809e-05 2.11858478e-05 1.41299188e-05 1.71715237e-05
      2.55292252e-05 3.50614573e-05 4.51989399e-05 5.29522185e-05
      5.71613018e-05 5.98173210e-05 5.94716548e-05 5.90302916e-05
      5.90875461e-05 5.90141935e-05 6.05956338e-05 5.70586017e-05
      3.50139599e-05 1.73139433e-05 1.71496304e-05 1.28690608e-05
      1.24965709e-05 2.03784498e-06 -1.65020319e-05 -2.11512343e-05
      -1.12493317e-05 -1.15684998e-06 4.75989282e-06 8.40622943e-06
      9.30000169e-06 8.83319717e-06 3.57888257e-06 5.25850692e-06
      1.02778768e-05 1.45663844e-05 2.28828067e-05 1.64881731e-05
      1.16693263e-05 7.70722636e-06 5.97402868e-06 7.18367755e-06
      1.48381296e-05 1.42370718e-05 7.71128907e-06 1.14193735e-05
      1.62250672e-05 1.62992583e-05 1.49215766e-05 1.94262757e-05
      2.44640141e-05 3.01309738e-05 3.31199299e-05 3.67132961e-05
      1.58356706e-05 1.31425813e-05 1.14898112e-05 1.35413366e-05
      1.93503056e-05 2.91844681e-05 3.87543005e-05 4.58352333e-05
      5.08608719e-05 5.22397568e-05 5.30412544e-05 5.31243641e-05
      5.77433675e-05 5.49745528e-05 3.54401782e-05 2.57491265e-05
      3.06189759e-05 3.04546211e-05 2.60983234e-05 1.09165494e-05
      -1.09509592e-05 -6.52790777e-06 6.74077182e-06 1.37264105e-05
      1.73789358e-05 1.99314072e-05 1.90715091e-05 2.03117925e-05
      1.80176285e-05 2.48245797e-05 2.95379377e-05 3.00606662e-05
      3.19237952e-05 2.18588011e-05 1.48478430e-05 8.22474976e-06
      5.33207640e-06 4.19305388e-06 5.92981951e-06 6.95790459e-06
      3.36300468e-06 1.12445141e-05 1.92616517e-05 2.26804605e-05
      2.47973785e-05 2.89170293e-05 3.76836542e-05 4.39243304e-05
      4.61647724e-05 4.92777144e-05 6.20423179e-06 6.40659346e-06
      3.02936087e-06 6.68680229e-07 2.43558065e-06 8.85627378e-06
      1.94105596e-05 3.06108268e-05 3.99263590e-05 4.42646051e-05
      4.65061712e-05 4.84525553e-05 5.20874128e-05 4.71232961e-05
      2.93968242e-05 1.96687070e-05 2.27151158e-05 2.25587646e-05
      1.40935090e-05 -3.07423466e-06 -2.56658514e-05 -1.56419101e-05
      1.72584328e-06 1.13624264e-05 1.49817679e-05 1.49210600e-05
      1.66130849e-05 2.29611778e-05 2.63535185e-05 3.30248040e-05
      3.51164854e-05 3.07320406e-05 2.91694942e-05 1.99441311e-05
      1.27368485e-05 4.96406619e-06 -1.35167042e-07 -3.10676683e-06
      -1.77117658e-06 6.17144877e-08 1.30624244e-06 1.40733473e-05
      2.40594454e-05 2.49624991e-05 2.45852643e-05 2.64997852e-05
      3.39722210e-05 4.15009090e-05 4.61858908e-05 4.89860795e-05
      -1.22602705e-05 -5.85179032e-06 -1.98997122e-06 2.35557832e-06
      5.38613813e-06 9.70763631e-06 1.62633114e-05 2.52592508e-05
      3.27326416e-05 3.83564729e-05 4.26231163e-05 4.46322665e-05
      4.75111519e-05 4.50737243e-05 3.64494190e-05 2.70935634e-05
      2.20452730e-05 1.63195509e-05 1.37208031e-06 -1.82462827e-05
      -4.33636706e-05 -3.19872306e-05 -1.33317617e-05 -3.65016490e-06
      2.61940909e-06 4.90534967e-06 9.40278551e-06 1.54159497e-05
      2.13605599e-05 2.72954403e-05 2.78618809e-05 2.24988071e-05
      1.81022388e-05 1.03220191e-05 3.53361906e-06 -3.32176432e-06
      -6.55308850e-06 -1.16616657e-05 -1.31741681e-05 -1.33759549e-05
      -1.01593077e-05 4.23986603e-06 1.93548458e-05 2.40828158e-05
      2.35209445e-05 2.03270083e-05 2.28628724e-05 3.36124358e-05
      4.03848535e-05 4.11626170e-05 -3.41467421e-05 -2.40854242e-05
      -1.72458458e-05 -9.35685694e-06 -2.20046968e-06 4.29398460e-06
      1.12290945e-05 1.75144723e-05 2.14038009e-05 2.43041413e-05
      2.87211915e-05 3.25688707e-05 3.68023939e-05 4.05349892e-05
      3.94687595e-05 3.45941771e-05 2.86612885e-05 2.32628809e-05
      1.00867937e-05 -9.58457167e-06 -3.10866490e-05 -2.34995478e-05
      -1.27419016e-05 -7.86498640e-06 -3.24297412e-06 -6.62985656e-07
      3.23255426e-06 5.94457151e-06 1.38332389e-05 1.81070809e-05
      1.71608590e-05 1.36319368e-05 1.01626565e-05 3.44032242e-06
      -2.01978492e-06 -8.86436010e-06 -1.39670346e-05 -1.93568703e-05
      -2.06607183e-05 -2.20663624e-05 -2.37851946e-05 -1.55465605e-05
      -2.76734841e-06 6.93037009e-06 1.34927377e-05 1.50776787e-05
      2.14333140e-05 3.19911487e-05 3.64789084e-05 3.66743407e-05
      -6.23441665e-05 -5.30006837e-05 -4.50287844e-05 -3.62189312e-05
      -2.75451130e-05 -1.83577376e-05 -1.15944222e-05 -7.05983530e-06
      -6.73404338e-06 -5.94786025e-06 -2.46014815e-06 2.50634412e-06
      1.02787117e-05 1.76990306e-05 2.11233128e-05 2.18708719e-05
      2.16024328e-05 2.16798198e-05 1.57527084e-05 2.91797096e-06
      -1.20617524e-05 -9.01846761e-06 -5.38612494e-06 -5.13012810e-06
      -2.64653295e-06 1.98676844e-06 6.72002943e-06 9.05089018e-06
      1.85772769e-05 2.30599435e-05 2.06178393e-05 1.54740446e-05
      1.16236324e-05 5.78331537e-06 1.24345490e-06 -3.87812224e-06
      -9.92254900e-06 -1.50221222e-05 -1.25075412e-05 -6.72552505e-06
      -6.14478358e-06 -1.24035409e-06 7.53220593e-06 1.46401353e-05
      2.36037777e-05 2.60057059e-05 3.06985094e-05 3.50097835e-05
      3.59966944e-05 3.62007522e-05 -6.93022957e-05 -6.22458683e-05
      -5.67369243e-05 -4.58045943e-05 -3.61887505e-05 -2.60526267e-05
      -1.87415917e-05 -1.67614435e-05 -1.78112350e-05 -2.01905059e-05
      -2.00580907e-05 -1.57162722e-05 -8.05298714e-06 1.22567883e-07
      6.35140077e-06 1.11963427e-05 1.67865237e-05 2.06042187e-05
      1.44736832e-05 2.93814401e-06 -7.22537834e-06 -5.36977996e-06
      -2.20602510e-06 -1.01666626e-06 6.50846118e-07 4.82512814e-06
      9.94468792e-06 1.30322733e-05 2.41769012e-05 2.77909348e-05
      2.58278378e-05 2.00892664e-05 1.41857381e-05 9.12669839e-06
      1.14728055e-05 1.68508122e-05 1.63493823e-05 1.61710595e-05
      1.45228651e-05 1.23249292e-05 1.11275294e-05 1.50748738e-05
      2.11500374e-05 2.54007100e-05 2.89068867e-05 3.06905968e-05
      3.25565015e-05 3.33864737e-05 3.37104429e-05 3.36684316e-05</_></support_vectors>
  <decision_functions>
    <_>
      <sv_count>1</sv_count>
      <rho>-1.0000000000000002e+00</rho>
      <alpha>
        1.</alpha></_></decision_functions></opencv_ml_svm>
</opencv_storage>
